Language model created by QuickLM on Tue Dec 16 21:53:25 EST 2014
Copyright (c) 1996-2010 Carnegie Mellon University and Alexander I. Rudnicky

The model is in standard ARPA format, designed by Doug Paul while he was at MITRE.

The code that was used to produce this language model is available in Open Source.
Please visit http://www.speech.cs.cmu.edu/tools/ for more information

The (fixed) discount mass is 0.5. The backoffs are computed using the ratio method.
This model based on a corpus of 62 sentences and 71 words

\data\
ngram 1=71
ngram 2=134
ngram 3=103

\1-grams:
-0.8996 </s> -0.3010
-0.8996 <s> -0.2333
-2.6920 APPLE -0.2425
-2.6920 ARE -0.2903
-2.6920 BACKWARD -0.2425
-2.6920 BLUE -0.2425
-2.6920 BRIGHTER -0.2425
-2.6920 BUTTON -0.2425
-2.6920 CANCEL -0.2425
-1.9138 CHANGE -0.2903
-2.3909 CHANNEL -0.2930
-2.6920 CIRCLE -0.3001
-2.6920 DARKER -0.2425
-2.0899 DOWN -0.2425
-2.6920 EIGHT -0.2425
-2.6920 ENTER -0.2425
-2.6920 FIVE -0.2425
-2.6920 FORWARD -0.2425
-2.6920 FOUR -0.2425
-2.6920 FRIZZY -0.2425
-2.3909 GET -0.2984
-2.6920 GIVE -0.3001
-2.6920 GO -0.2425
-2.6920 GREEN -0.2425
-2.6920 HBO -0.2425
-2.6920 IDS -0.2425
-2.6920 INPUT -0.2425
-2.6920 IS -0.3001
-2.6920 IT -0.2425
-2.2148 LEFT -0.2425
-2.2148 LIGHT -0.2975
-1.7377 LIGHTS -0.2364
-2.6920 ME -0.2984
-2.6920 MENU -0.2425
-2.6920 MTV -0.2425
-2.6920 MUTE -0.2425
-2.6920 MY -0.2930
-2.2148 NAMES -0.2415
-2.6920 NEGATIVE -0.2425
-2.6920 NINE -0.2425
-2.6920 OF -0.3001
-2.6920 OFF -0.2903
-2.6920 ON -0.2903
-2.6920 ONE -0.2425
-2.6920 PAUSE -0.2425
-2.6920 PLAY -0.2425
-2.6920 POWER -0.2425
-2.6920 RECALL -0.2425
-2.6920 RED -0.2425
-2.2148 RIGHT -0.2425
-2.6920 SCARLETT -0.2425
-2.0899 SELECT -0.2903
-2.6920 SEVEN -0.2425
-2.6920 SEXY -0.2993
-2.6920 SIX -0.2425
-2.6920 STOP -0.2425
-1.6128 THE -0.2867
-2.6920 THREE -0.2425
-2.3909 TIME -0.2415
-2.3909 TO -0.2993
-2.6920 TOSHIBA -0.2425
-2.0899 TURN -0.2885
-2.2148 TV -0.2405
-2.6920 TWO -0.2425
-1.9930 UP -0.2425
-2.3909 VOLUME -0.2930
-2.6920 WEATHER -0.2425
-2.3909 WHAT -0.2984
-2.6920 WHATS -0.2903
-2.6920 WHITE -0.2425
-2.6920 ZERO -0.2425

\2-grams:
-2.0934 <s> APPLE 0.0000
-2.0934 <s> BACKWARD 0.0000
-2.0934 <s> CANCEL 0.0000
-1.3153 <s> CHANGE 0.0000
-1.7924 <s> CHANNEL 0.0000
-2.0934 <s> CIRCLE 0.0000
-1.7924 <s> DOWN 0.0000
-2.0934 <s> EIGHT 0.0000
-2.0934 <s> FIVE 0.0000
-2.0934 <s> FORWARD 0.0000
-2.0934 <s> FOUR 0.0000
-2.0934 <s> FRIZZY 0.0000
-1.7924 <s> GET 0.0000
-2.0934 <s> GIVE 0.0000
-2.0934 <s> GO 0.0000
-2.0934 <s> INPUT 0.0000
-1.7924 <s> LEFT 0.0000
-2.0934 <s> MENU 0.0000
-2.0934 <s> MUTE 0.0000
-2.0934 <s> NEGATIVE 0.0000
-2.0934 <s> NINE 0.0000
-2.0934 <s> ONE 0.0000
-2.0934 <s> PAUSE 0.0000
-2.0934 <s> PLAY 0.0000
-2.0934 <s> POWER 0.0000
-2.0934 <s> RECALL 0.0000
-1.7924 <s> RIGHT 0.0000
-2.0934 <s> SCARLETT 0.0000
-1.4914 <s> SELECT 0.0000
-2.0934 <s> SEVEN 0.0000
-2.0934 <s> SEXY 0.0000
-2.0934 <s> SIX 0.0000
-2.0934 <s> STOP 0.0000
-2.0934 <s> THREE 0.0000
-2.0934 <s> TOSHIBA 0.0000
-1.4914 <s> TURN 0.0000
-2.0934 <s> TV -0.2218
-2.0934 <s> TWO 0.0000
-1.7924 <s> UP 0.0000
-1.7924 <s> VOLUME 0.0000
-1.7924 <s> WHAT 0.0000
-2.0934 <s> WHATS 0.0000
-2.0934 <s> ZERO 0.0000
-0.3010 APPLE </s> -0.3010
-0.3010 ARE THE -0.2825
-0.3010 BACKWARD </s> -0.3010
-0.3010 BLUE </s> -0.3010
-0.3010 BRIGHTER </s> -0.3010
-0.3010 BUTTON </s> -0.3010
-0.3010 CANCEL </s> -0.3010
-0.3010 CHANGE THE -0.0669
-0.6021 CHANNEL DOWN 0.0000
-0.6021 CHANNEL UP 0.0000
-0.3010 CIRCLE BUTTON 0.0000
-0.3010 DARKER </s> -0.3010
-0.3010 DOWN </s> -0.3010
-0.3010 EIGHT </s> -0.3010
-0.3010 ENTER </s> -0.3010
-0.3010 FIVE </s> -0.3010
-0.3010 FORWARD </s> -0.3010
-0.3010 FOUR </s> -0.3010
-0.3010 FRIZZY </s> -0.3010
-0.3010 GET LIGHT 0.0000
-0.3010 GIVE ME 0.0000
-0.3010 GO </s> -0.3010
-0.3010 GREEN </s> -0.3010
-0.3010 HBO </s> -0.3010
-0.3010 IDS </s> -0.3010
-0.3010 INPUT </s> -0.3010
-0.3010 IS IT 0.0000
-0.3010 IT </s> -0.3010
-0.3010 LEFT </s> -0.3010
-0.7782 LIGHT IDS 0.0000
-0.4771 LIGHT NAMES -0.1249
-0.7782 LIGHTS </s> -0.3010
-1.2553 LIGHTS BLUE 0.0000
-1.2553 LIGHTS BRIGHTER 0.0000
-1.2553 LIGHTS DARKER 0.0000
-1.2553 LIGHTS GREEN 0.0000
-1.2553 LIGHTS RED 0.0000
-1.2553 LIGHTS WHITE 0.0000
-0.3010 ME LIGHT -0.1249
-0.3010 MENU </s> -0.3010
-0.3010 MTV </s> -0.3010
-0.3010 MUTE </s> -0.3010
-0.3010 MY LIGHTS -0.2218
-0.4771 NAMES </s> -0.3010
-0.7782 NAMES OF 0.0000
-0.3010 NEGATIVE </s> -0.3010
-0.3010 NINE </s> -0.3010
-0.3010 OF MY 0.0000
-0.3010 OFF THE -0.1249
-0.3010 ON THE -0.1249
-0.3010 ONE </s> -0.3010
-0.3010 PAUSE </s> -0.3010
-0.3010 PLAY </s> -0.3010
-0.3010 POWER </s> -0.3010
-0.3010 RECALL </s> -0.3010
-0.3010 RED </s> -0.3010
-0.3010 RIGHT </s> -0.3010
-0.3010 SCARLETT </s> -0.3010
-0.9031 SELECT ENTER 0.0000
-0.9031 SELECT LEFT 0.0000
-0.9031 SELECT RIGHT 0.0000
-0.9031 SELECT UP 0.0000
-0.3010 SEVEN </s> -0.3010
-0.3010 SEXY TIME -0.1761
-0.3010 SIX </s> -0.3010
-0.3010 STOP </s> -0.3010
-0.4771 THE LIGHTS 0.0000
-1.3802 THE NAMES -0.2218
-1.0792 THE TV -0.1249
-1.3802 THE WEATHER 0.0000
-0.3010 THREE </s> -0.3010
-0.6021 TIME </s> -0.3010
-0.6021 TIME IS 0.0000
-0.6021 TO HBO 0.0000
-0.6021 TO MTV 0.0000
-0.3010 TOSHIBA </s> -0.3010
-0.9031 TURN OFF 0.0000
-0.9031 TURN ON 0.0000
-0.6021 TURN THE -0.1249
-0.7782 TV </s> -0.3010
-0.4771 TV TO 0.0000
-0.3010 TWO </s> -0.3010
-0.3010 UP </s> -0.3010
-0.6021 VOLUME DOWN 0.0000
-0.6021 VOLUME UP 0.0000
-0.3010 WEATHER </s> -0.3010
-0.6021 WHAT ARE 0.0000
-0.6021 WHAT TIME -0.1761
-0.3010 WHATS THE -0.2825
-0.3010 WHITE </s> -0.3010
-0.3010 ZERO </s> -0.3010

\3-grams:
-0.3010 <s> APPLE </s>
-0.3010 <s> BACKWARD </s>
-0.3010 <s> CANCEL </s>
-0.3010 <s> CHANGE THE
-0.6021 <s> CHANNEL DOWN
-0.6021 <s> CHANNEL UP
-0.3010 <s> CIRCLE BUTTON
-0.3010 <s> DOWN </s>
-0.3010 <s> EIGHT </s>
-0.3010 <s> FIVE </s>
-0.3010 <s> FORWARD </s>
-0.3010 <s> FOUR </s>
-0.3010 <s> FRIZZY </s>
-0.3010 <s> GET LIGHT
-0.3010 <s> GIVE ME
-0.3010 <s> GO </s>
-0.3010 <s> INPUT </s>
-0.3010 <s> LEFT </s>
-0.3010 <s> MENU </s>
-0.3010 <s> MUTE </s>
-0.3010 <s> NEGATIVE </s>
-0.3010 <s> NINE </s>
-0.3010 <s> ONE </s>
-0.3010 <s> PAUSE </s>
-0.3010 <s> PLAY </s>
-0.3010 <s> POWER </s>
-0.3010 <s> RECALL </s>
-0.3010 <s> RIGHT </s>
-0.3010 <s> SCARLETT </s>
-0.9031 <s> SELECT ENTER
-0.9031 <s> SELECT LEFT
-0.9031 <s> SELECT RIGHT
-0.9031 <s> SELECT UP
-0.3010 <s> SEVEN </s>
-0.3010 <s> SEXY TIME
-0.3010 <s> SIX </s>
-0.3010 <s> STOP </s>
-0.3010 <s> THREE </s>
-0.3010 <s> TOSHIBA </s>
-0.9031 <s> TURN OFF
-0.9031 <s> TURN ON
-0.6021 <s> TURN THE
-0.3010 <s> TV </s>
-0.3010 <s> TWO </s>
-0.3010 <s> UP </s>
-0.6021 <s> VOLUME DOWN
-0.6021 <s> VOLUME UP
-0.6021 <s> WHAT ARE
-0.6021 <s> WHAT TIME
-0.3010 <s> WHATS THE
-0.3010 <s> ZERO </s>
-0.3010 ARE THE NAMES
-0.4771 CHANGE THE LIGHTS
-0.7782 CHANGE THE TV
-0.3010 CHANNEL DOWN </s>
-0.3010 CHANNEL UP </s>
-0.3010 CIRCLE BUTTON </s>
-0.6021 GET LIGHT IDS
-0.6021 GET LIGHT NAMES
-0.3010 GIVE ME LIGHT
-0.3010 IS IT </s>
-0.3010 LIGHT IDS </s>
-0.3010 LIGHT NAMES </s>
-0.3010 LIGHTS BLUE </s>
-0.3010 LIGHTS BRIGHTER </s>
-0.3010 LIGHTS DARKER </s>
-0.3010 LIGHTS GREEN </s>
-0.3010 LIGHTS RED </s>
-0.3010 LIGHTS WHITE </s>
-0.3010 ME LIGHT NAMES
-0.3010 MY LIGHTS </s>
-0.3010 NAMES OF MY
-0.3010 OF MY LIGHTS
-0.3010 OFF THE LIGHTS
-0.3010 ON THE LIGHTS
-0.3010 SELECT ENTER </s>
-0.3010 SELECT LEFT </s>
-0.3010 SELECT RIGHT </s>
-0.3010 SELECT UP </s>
-0.3010 SEXY TIME </s>
-0.9031 THE LIGHTS </s>
-1.2041 THE LIGHTS BLUE
-1.2041 THE LIGHTS BRIGHTER
-1.2041 THE LIGHTS DARKER
-1.2041 THE LIGHTS GREEN
-1.2041 THE LIGHTS RED
-1.2041 THE LIGHTS WHITE
-0.3010 THE NAMES OF
-0.3010 THE TV TO
-0.3010 THE WEATHER </s>
-0.3010 TIME IS IT
-0.3010 TO HBO </s>
-0.3010 TO MTV </s>
-0.3010 TURN OFF THE
-0.3010 TURN ON THE
-0.3010 TURN THE LIGHTS
-0.6021 TV TO HBO
-0.6021 TV TO MTV
-0.3010 VOLUME DOWN </s>
-0.3010 VOLUME UP </s>
-0.3010 WHAT ARE THE
-0.3010 WHAT TIME IS
-0.3010 WHATS THE WEATHER

\end\
